solver_type L1R_LR
nr_class 2
label 1 -1
nr_feature 100
bias -1
w
0 
0.2442820909349507 
0 
0 
-0.1545810709340984 
0.5656767967455136 
-0.2126543880727723 
0 
0 
-1.279816365714941 
0 
0 
0 
0 
0 
-0.6495972766972704 
0 
0 
0 
0 
0 
0.1031811217830649 
0 
0.928499796277936 
0 
-0.03981891963356712 
0 
-0.01403782779198188 
0 
0 
-0.2070570182885099 
0 
0 
0 
0.7742379829853149 
0 
0 
-0.5821582999709958 
0 
0 
0 
-0.1696539640235268 
0 
0 
0 
0.2741225433604714 
0 
0.3443926191332673 
0 
0 
0 
0 
0 
0.006398733138004825 
0.04390000592327416 
0 
-0.01505815594986376 
0.1085556669391148 
-0.05830735514007133 
0 
0.1038067248701713 
0 
0.05841508398454861 
0 
-0.07805963704662938 
0 
0 
-0.005288935341321717 
0 
-0.01087084827927146 
0 
0 
-0.007145981023065756 
0 
-0.0319706368260685 
0.2047789816528262 
0 
0 
0.5334303251062383 
-0.006188406055319723 
0 
-0.5122008770520671 
0 
0 
0 
0 
0.09009123837483479 
-0.007520357108653833 
0 
0 
0 
0.31647985905196 
0.03944174124570553 
-0.009249127649802121 
-0.01419628978868569 
0 
0.02054830339016517 
0 
0 
-0.1472819480350035 
